digraph Tree {
node [shape=box, fontname="helvetica"] ;
edge [fontname="helvetica"] ;
0 [label="Experiência <= 5.1\nsquared_error = 638331774.979\nsamples = 20\nvalue = 70139.767"] ;
1 [label="Experiência <= 2.95\nsquared_error = 110346686.21\nsamples = 11\nvalue = 51450.889"] ;
0 -> 1 [labeldistance=2.5, labelangle=45, headlabel="True"] ;
2 [label="Experiência <= 1.4\nsquared_error = 11263787.0\nsamples = 4\nvalue = 40591.0"] ;
1 -> 2 ;
3 [label="Experiência <= 1.2\nsquared_error = 10463787.556\nsamples = 2\nvalue = 43917.667"] ;
2 -> 3 ;
4 [label="squared_error = 0.0\nsamples = 1\nvalue = 39343.0"] ;
3 -> 4 ;
5 [label="squared_error = 0.0\nsamples = 1\nvalue = 46205.0"] ;
3 -> 5 ;
6 [label="Experiência <= 1.85\nsquared_error = 1119744.0\nsamples = 2\nvalue = 38595.0"] ;
2 -> 6 ;
7 [label="squared_error = 0.0\nsamples = 1\nvalue = 37731.0"] ;
6 -> 7 ;
8 [label="squared_error = 0.0\nsamples = 1\nvalue = 39891.0"] ;
6 -> 8 ;
9 [label="Experiência <= 4.7\nsquared_error = 19783456.76\nsamples = 7\nvalue = 60138.8"] ;
1 -> 9 ;
10 [label="Experiência <= 3.95\nsquared_error = 5720720.75\nsamples = 6\nvalue = 58189.0"] ;
9 -> 10 ;
11 [label="Experiência <= 3.8\nsquared_error = 9087210.25\nsamples = 2\nvalue = 60203.5"] ;
10 -> 11 ;
12 [label="squared_error = 0.0\nsamples = 1\nvalue = 57189.0"] ;
11 -> 12 ;
13 [label="squared_error = 0.0\nsamples = 1\nvalue = 63218.0"] ;
11 -> 13 ;
14 [label="Experiência <= 4.3\nsquared_error = 2794908.583\nsamples = 4\nvalue = 57517.5"] ;
10 -> 14 ;
15 [label="Experiência <= 4.05\nsquared_error = 254712.16\nsamples = 3\nvalue = 56798.8"] ;
14 -> 15 ;
16 [label="squared_error = 338142.25\nsamples = 2\nvalue = 56375.5"] ;
15 -> 16 ;
17 [label="squared_error = 0.0\nsamples = 1\nvalue = 57081.0"] ;
15 -> 17 ;
18 [label="squared_error = 0.0\nsamples = 1\nvalue = 61111.0"] ;
14 -> 18 ;
19 [label="squared_error = 0.0\nsamples = 1\nvalue = 67938.0"] ;
9 -> 19 ;
20 [label="Experiência <= 8.45\nsquared_error = 120531335.91\nsamples = 9\nvalue = 98173.083"] ;
0 -> 20 [labeldistance=2.5, labelangle=-45, headlabel="False"] ;
21 [label="Experiência <= 5.95\nsquared_error = 43329414.617\nsamples = 6\nvalue = 93109.778"] ;
20 -> 21 ;
22 [label="Experiência <= 5.6\nsquared_error = 743906.25\nsamples = 2\nvalue = 82225.5"] ;
21 -> 22 ;
23 [label="squared_error = 0.0\nsamples = 1\nvalue = 83088.0"] ;
22 -> 23 ;
24 [label="squared_error = 0.0\nsamples = 1\nvalue = 81363.0"] ;
22 -> 24 ;
25 [label="Experiência <= 6.95\nsquared_error = 11978028.245\nsamples = 4\nvalue = 96219.571"] ;
21 -> 25 ;
26 [label="Experiência <= 6.4\nsquared_error = 1077512.0\nsamples = 2\nvalue = 92472.0"] ;
25 -> 26 ;
27 [label="squared_error = 0.0\nsamples = 1\nvalue = 93940.0"] ;
26 -> 27 ;
28 [label="squared_error = 0.0\nsamples = 1\nvalue = 91738.0"] ;
26 -> 28 ;
29 [label="Experiência <= 7.5\nsquared_error = 1720282.688\nsamples = 2\nvalue = 99030.25"] ;
25 -> 29 ;
30 [label="squared_error = 0.0\nsamples = 1\nvalue = 98273.0"] ;
29 -> 30 ;
31 [label="squared_error = 0.0\nsamples = 1\nvalue = 101302.0"] ;
29 -> 31 ;
32 [label="Experiência <= 10.05\nsquared_error = 44492342.0\nsamples = 3\nvalue = 113363.0"] ;
20 -> 32 ;
33 [label="Experiência <= 9.3\nsquared_error = 12436202.25\nsamples = 2\nvalue = 109108.5"] ;
32 -> 33 ;
34 [label="squared_error = 0.0\nsamples = 1\nvalue = 105582.0"] ;
33 -> 34 ;
35 [label="squared_error = 0.0\nsamples = 1\nvalue = 112635.0"] ;
33 -> 35 ;
36 [label="squared_error = 0.0\nsamples = 1\nvalue = 121872.0"] ;
32 -> 36 ;
}
