digraph Tree {
node [shape=box, fontname="helvetica"] ;
edge [fontname="helvetica"] ;
0 [label="Experiência <= 7.0\nsquared_error = 33800000000.0\nsamples = 2\nvalue = 240000.0"] ;
1 [label="squared_error = 0.0\nsamples = 1\nvalue = 110000.0"] ;
0 -> 1 [labeldistance=2.5, labelangle=45, headlabel="True"] ;
2 [label="squared_error = 0.0\nsamples = 1\nvalue = 500000.0"] ;
0 -> 2 [labeldistance=2.5, labelangle=-45, headlabel="False"] ;
}
